digraph Tree {
node [shape=box] ;
0 [label="gill-color <= 0.5\nentropy = 0.999\nsamples = 5686\nvalue = [2936, 2750]"] ;
1 [label="entropy = 0.0\nsamples = 1212\nvalue = [0, 1212]"] ;
0 -> 1 [labeldistance=2.5, labelangle=45, headlabel="True"] ;
2 [label="spore-print-color <= 1.5\nentropy = 0.928\nsamples = 4474\nvalue = [2936, 1538]"] ;
0 -> 2 [labeldistance=2.5, labelangle=-45, headlabel="False"] ;
3 [label="odor <= 3.5\nentropy = 0.322\nsamples = 1159\nvalue = [68, 1091]"] ;
2 -> 3 ;
4 [label="entropy = 0.0\nsamples = 1091\nvalue = [0, 1091]"] ;
3 -> 4 ;
5 [label="entropy = 0.0\nsamples = 68\nvalue = [68, 0]"] ;
3 -> 5 ;
6 [label="gill-size <= 0.5\nentropy = 0.571\nsamples = 3315\nvalue = [2868, 447]"] ;
2 -> 6 ;
7 [label="spore-print-color <= 4.5\nentropy = 0.186\nsamples = 2779\nvalue = [2700, 79]"] ;
6 -> 7 ;
8 [label="entropy = 0.0\nsamples = 2292\nvalue = [2292, 0]"] ;
7 -> 8 ;
9 [label="stalk-root <= 0.5\nentropy = 0.64\nsamples = 487\nvalue = [408, 79]"] ;
7 -> 9 ;
10 [label="entropy = 0.0\nsamples = 371\nvalue = [371, 0]"] ;
9 -> 10 ;
11 [label="entropy = 0.903\nsamples = 116\nvalue = [37, 79]"] ;
9 -> 11 ;
12 [label="odor <= 5.5\nentropy = 0.897\nsamples = 536\nvalue = [168, 368]"] ;
6 -> 12 ;
13 [label="odor <= 2.0\nentropy = 1.0\nsamples = 344\nvalue = [168, 176]"] ;
12 -> 13 ;
14 [label="entropy = 0.65\nsamples = 168\nvalue = [28, 140]"] ;
13 -> 14 ;
15 [label="entropy = 0.731\nsamples = 176\nvalue = [140, 36]"] ;
13 -> 15 ;
16 [label="entropy = 0.0\nsamples = 192\nvalue = [0, 192]"] ;
12 -> 16 ;
}